digraph Tree {
node [shape=box, style="filled, rounded", color="black", fontname="helvetica"] ;
edge [fontname="helvetica"] ;
0 [label="Temp3pm <= 24.25\ngini = 0.33\nsamples = 8536\nvalue = [10697, 2803]\nclass = R", fillcolor="#eca26d"] ;
1 [label="RainTomorrow <= 0.5\ngini = 0.38\nsamples = 5413\nvalue = [6357, 2172]\nclass = R", fillcolor="#eeac7d"] ;
0 -> 1 [labeldistance=2.5, labelangle=45, headlabel="True"] ;
2 [label="gini = 0.0\nsamples = 4022\nvalue = [6357, 0]\nclass = R", fillcolor="#e58139"] ;
1 -> 2 ;
3 [label="gini = 0.0\nsamples = 1391\nvalue = [0, 2172]\nclass = a", fillcolor="#399de5"] ;
1 -> 3 ;
4 [label="WindSpeed3pm <= 18.0\ngini = 0.22\nsamples = 3123\nvalue = [4340, 631]\nclass = R", fillcolor="#e99356"] ;
0 -> 4 [labeldistance=2.5, labelangle=-45, headlabel="False"] ;
5 [label="Humidity3pm <= 48.5\ngini = 0.18\nsamples = 1820\nvalue = [2581, 288]\nclass = R", fillcolor="#e88f4f"] ;
4 -> 5 ;
6 [label="Pressure3pm <= 1010.15\ngini = 0.12\nsamples = 1433\nvalue = [2125, 143]\nclass = R", fillcolor="#e78946"] ;
5 -> 6 ;
7 [label="RainTomorrow <= 0.5\ngini = 0.23\nsamples = 368\nvalue = [508, 78]\nclass = R", fillcolor="#e99457"] ;
6 -> 7 ;
8 [label="gini = 0.0\nsamples = 325\nvalue = [508, 0]\nclass = R", fillcolor="#e58139"] ;
7 -> 8 ;
9 [label="gini = 0.0\nsamples = 43\nvalue = [0, 78]\nclass = a", fillcolor="#399de5"] ;
7 -> 9 ;
10 [label="Humidity3pm <= 37.5\ngini = 0.07\nsamples = 1065\nvalue = [1617, 65]\nclass = R", fillcolor="#e68641"] ;
6 -> 10 ;
11 [label="RainTomorrow <= 0.5\ngini = 0.04\nsamples = 874\nvalue = [1360, 32]\nclass = R", fillcolor="#e6843e"] ;
10 -> 11 ;
12 [label="gini = 0.0\nsamples = 850\nvalue = [1360, 0]\nclass = R", fillcolor="#e58139"] ;
11 -> 12 ;
13 [label="gini = 0.0\nsamples = 24\nvalue = [0, 32]\nclass = a", fillcolor="#399de5"] ;
11 -> 13 ;
14 [label="WindSpeed3pm <= 14.0\ngini = 0.2\nsamples = 191\nvalue = [257, 33]\nclass = R", fillcolor="#e89152"] ;
10 -> 14 ;
15 [label="WindDir3pm <= 4.5\ngini = 0.15\nsamples = 152\nvalue = [211, 19]\nclass = R", fillcolor="#e78c4b"] ;
14 -> 15 ;
16 [label="Pressure3pm <= 1013.35\ngini = 0.35\nsamples = 25\nvalue = [27, 8]\nclass = R", fillcolor="#eda674"] ;
15 -> 16 ;
17 [label="Humidity3pm <= 40.5\ngini = 0.49\nsamples = 10\nvalue = [8, 6]\nclass = R", fillcolor="#f8e0ce"] ;
16 -> 17 ;
18 [label="gini = 0.0\nsamples = 4\nvalue = [5, 0]\nclass = R", fillcolor="#e58139"] ;
17 -> 18 ;
19 [label="WindDir3pm <= 2.5\ngini = 0.44\nsamples = 6\nvalue = [3, 6]\nclass = a", fillcolor="#9ccef2"] ;
17 -> 19 ;
20 [label="Humidity3pm <= 45.5\ngini = 0.48\nsamples = 4\nvalue = [3, 2]\nclass = R", fillcolor="#f6d5bd"] ;
19 -> 20 ;
21 [label="gini = 0.0\nsamples = 2\nvalue = [0, 2]\nclass = a", fillcolor="#399de5"] ;
20 -> 21 ;
22 [label="gini = 0.0\nsamples = 2\nvalue = [3, 0]\nclass = R", fillcolor="#e58139"] ;
20 -> 22 ;
23 [label="gini = 0.0\nsamples = 2\nvalue = [0, 4]\nclass = a", fillcolor="#399de5"] ;
19 -> 23 ;
24 [label="Temp3pm <= 24.85\ngini = 0.17\nsamples = 15\nvalue = [19, 2]\nclass = R", fillcolor="#e88e4e"] ;
16 -> 24 ;
25 [label="gini = 0.0\nsamples = 1\nvalue = [0, 2]\nclass = a", fillcolor="#399de5"] ;
24 -> 25 ;
26 [label="gini = 0.0\nsamples = 14\nvalue = [19, 0]\nclass = R", fillcolor="#e58139"] ;
24 -> 26 ;
27 [label="Pressure3pm <= 1011.95\ngini = 0.11\nsamples = 127\nvalue = [184, 11]\nclass = R", fillcolor="#e78945"] ;
15 -> 27 ;
28 [label="Humidity3pm <= 43.0\ngini = 0.46\nsamples = 14\nvalue = [11, 6]\nclass = R", fillcolor="#f3c6a5"] ;
27 -> 28 ;
29 [label="WindDir3pm <= 10.0\ngini = 0.26\nsamples = 11\nvalue = [11, 2]\nclass = R", fillcolor="#ea985d"] ;
28 -> 29 ;
30 [label="gini = 0.0\nsamples = 5\nvalue = [7, 0]\nclass = R", fillcolor="#e58139"] ;
29 -> 30 ;
31 [label="WindDir3pm <= 13.0\ngini = 0.44\nsamples = 6\nvalue = [4, 2]\nclass = R", fillcolor="#f2c09c"] ;
29 -> 31 ;
32 [label="Humidity3pm <= 40.5\ngini = 0.48\nsamples = 5\nvalue = [3, 2]\nclass = R", fillcolor="#f6d5bd"] ;
31 -> 32 ;
33 [label="WindDir3pm <= 11.5\ngini = 0.38\nsamples = 4\nvalue = [3, 1]\nclass = R", fillcolor="#eeab7b"] ;
32 -> 33 ;
34 [label="Pressure3pm <= 1011.25\ngini = 0.5\nsamples = 2\nvalue = [1, 1]\nclass = R", fillcolor="#ffffff"] ;
33 -> 34 ;
35 [label="gini = 0.0\nsamples = 1\nvalue = [1, 0]\nclass = R", fillcolor="#e58139"] ;
34 -> 35 ;
36 [label="gini = 0.0\nsamples = 1\nvalue = [0, 1]\nclass = a", fillcolor="#399de5"] ;
34 -> 36 ;
37 [label="gini = 0.0\nsamples = 2\nvalue = [2, 0]\nclass = R", fillcolor="#e58139"] ;
33 -> 37 ;
38 [label="gini = 0.0\nsamples = 1\nvalue = [0, 1]\nclass = a", fillcolor="#399de5"] ;
32 -> 38 ;
39 [label="gini = 0.0\nsamples = 1\nvalue = [1, 0]\nclass = R", fillcolor="#e58139"] ;
31 -> 39 ;
40 [label="gini = 0.0\nsamples = 3\nvalue = [0, 4]\nclass = a", fillcolor="#399de5"] ;
28 -> 40 ;
41 [label="Temp3pm <= 27.45\ngini = 0.05\nsamples = 113\nvalue = [173, 5]\nclass = R", fillcolor="#e6853f"] ;
27 -> 41 ;
42 [label="RainTomorrow <= 0.5\ngini = 0.02\nsamples = 69\nvalue = [106, 1]\nclass = R", fillcolor="#e5823b"] ;
41 -> 42 ;
43 [label="gini = 0.0\nsamples = 68\nvalue = [106, 0]\nclass = R", fillcolor="#e58139"] ;
42 -> 43 ;
44 [label="gini = 0.0\nsamples = 1\nvalue = [0, 1]\nclass = a", fillcolor="#399de5"] ;
42 -> 44 ;
45 [label="Temp3pm <= 27.55\ngini = 0.11\nsamples = 44\nvalue = [67, 4]\nclass = R", fillcolor="#e78945"] ;
41 -> 45 ;
46 [label="RainTomorrow <= 0.5\ngini = 0.44\nsamples = 2\nvalue = [1, 2]\nclass = a", fillcolor="#9ccef2"] ;
45 -> 46 ;
47 [label="gini = 0.0\nsamples = 1\nvalue = [1, 0]\nclass = R", fillcolor="#e58139"] ;
46 -> 47 ;
48 [label="gini = 0.0\nsamples = 1\nvalue = [0, 2]\nclass = a", fillcolor="#399de5"] ;
46 -> 48 ;
49 [label="RainTomorrow <= 0.5\ngini = 0.06\nsamples = 42\nvalue = [66, 2]\nclass = R", fillcolor="#e6853f"] ;
45 -> 49 ;
50 [label="gini = 0.0\nsamples = 41\nvalue = [66, 0]\nclass = R", fillcolor="#e58139"] ;
49 -> 50 ;
51 [label="gini = 0.0\nsamples = 1\nvalue = [0, 2]\nclass = a", fillcolor="#399de5"] ;
49 -> 51 ;
52 [label="Pressure3pm <= 1017.8\ngini = 0.36\nsamples = 39\nvalue = [46, 14]\nclass = R", fillcolor="#eda775"] ;
14 -> 52 ;
53 [label="Temp3pm <= 27.65\ngini = 0.2\nsamples = 31\nvalue = [39, 5]\nclass = R", fillcolor="#e89152"] ;
52 -> 53 ;
54 [label="Temp3pm <= 27.35\ngini = 0.31\nsamples = 17\nvalue = [17, 4]\nclass = R", fillcolor="#eb9f68"] ;
53 -> 54 ;
55 [label="Temp3pm <= 25.9\ngini = 0.19\nsamples = 16\nvalue = [17, 2]\nclass = R", fillcolor="#e89050"] ;
54 -> 55 ;
56 [label="Temp3pm <= 25.65\ngini = 0.32\nsamples = 9\nvalue = [8, 2]\nclass = R", fillcolor="#eca06a"] ;
55 -> 56 ;
57 [label="gini = 0.0\nsamples = 7\nvalue = [8, 0]\nclass = R", fillcolor="#e58139"] ;
56 -> 57 ;
58 [label="gini = 0.0\nsamples = 2\nvalue = [0, 2]\nclass = a", fillcolor="#399de5"] ;
56 -> 58 ;
59 [label="gini = 0.0\nsamples = 7\nvalue = [9, 0]\nclass = R", fillcolor="#e58139"] ;
55 -> 59 ;
60 [label="gini = 0.0\nsamples = 1\nvalue = [0, 2]\nclass = a", fillcolor="#399de5"] ;
54 -> 60 ;
61 [label="RainTomorrow <= 0.5\ngini = 0.08\nsamples = 14\nvalue = [22, 1]\nclass = R", fillcolor="#e68742"] ;
53 -> 61 ;
62 [label="gini = 0.0\nsamples = 13\nvalue = [22, 0]\nclass = R", fillcolor="#e58139"] ;
61 -> 62 ;
63 [label="gini = 0.0\nsamples = 1\nvalue = [0, 1]\nclass = a", fillcolor="#399de5"] ;
61 -> 63 ;
64 [label="Pressure3pm <= 1019.35\ngini = 0.49\nsamples = 8\nvalue = [7, 9]\nclass = a", fillcolor="#d3e9f9"] ;
52 -> 64 ;
65 [label="WindDir3pm <= 6.5\ngini = 0.18\nsamples = 4\nvalue = [1, 9]\nclass = a", fillcolor="#4fa8e8"] ;
64 -> 65 ;
66 [label="gini = 0.0\nsamples = 1\nvalue = [1, 0]\nclass = R", fillcolor="#e58139"] ;
65 -> 66 ;
67 [label="gini = 0.0\nsamples = 3\nvalue = [0, 9]\nclass = a", fillcolor="#399de5"] ;
65 -> 67 ;
68 [label="gini = 0.0\nsamples = 4\nvalue = [6, 0]\nclass = R", fillcolor="#e58139"] ;
64 -> 68 ;
69 [label="RainTomorrow <= 0.5\ngini = 0.37\nsamples = 387\nvalue = [456, 145]\nclass = R", fillcolor="#eda978"] ;
5 -> 69 ;
70 [label="gini = 0.0\nsamples = 295\nvalue = [456, 0]\nclass = R", fillcolor="#e58139"] ;
69 -> 70 ;
71 [label="gini = 0.0\nsamples = 92\nvalue = [0, 145]\nclass = a", fillcolor="#399de5"] ;
69 -> 71 ;
72 [label="RainTomorrow <= 0.5\ngini = 0.27\nsamples = 1303\nvalue = [1759, 343]\nclass = R", fillcolor="#ea9a60"] ;
4 -> 72 ;
73 [label="gini = 0.0\nsamples = 1090\nvalue = [1759, 0]\nclass = R", fillcolor="#e58139"] ;
72 -> 73 ;
74 [label="gini = 0.0\nsamples = 213\nvalue = [0, 343]\nclass = a", fillcolor="#399de5"] ;
72 -> 74 ;
}