digraph Tree {
node [shape=box, style="filled, rounded", color="black", fontname="helvetica"] ;
edge [fontname="helvetica"] ;
0 [label="Pressure3pm <= 1008.65\ngini = 0.33\nsamples = 8535\nvalue = [10713, 2787]\nclass = R", fillcolor="#eca26d"] ;
1 [label="Humidity3pm <= 53.5\ngini = 0.44\nsamples = 1261\nvalue = [1351, 639]\nclass = R", fillcolor="#f1bd97"] ;
0 -> 1 [labeldistance=2.5, labelangle=45, headlabel="True"] ;
2 [label="RainTomorrow <= 0.5\ngini = 0.26\nsamples = 749\nvalue = [1000, 178]\nclass = R", fillcolor="#ea975c"] ;
1 -> 2 ;
3 [label="gini = 0.0\nsamples = 639\nvalue = [1000, 0]\nclass = R", fillcolor="#e58139"] ;
2 -> 3 ;
4 [label="gini = 0.0\nsamples = 110\nvalue = [0, 178]\nclass = a", fillcolor="#399de5"] ;
2 -> 4 ;
5 [label="Humidity3pm <= 77.5\ngini = 0.49\nsamples = 512\nvalue = [351, 461]\nclass = a", fillcolor="#d0e8f9"] ;
1 -> 5 ;
6 [label="RainTomorrow <= 0.5\ngini = 0.49\nsamples = 333\nvalue = [298, 235]\nclass = R", fillcolor="#fae4d5"] ;
5 -> 6 ;
7 [label="gini = 0.0\nsamples = 188\nvalue = [298, 0]\nclass = R", fillcolor="#e58139"] ;
6 -> 7 ;
8 [label="gini = 0.0\nsamples = 145\nvalue = [0, 235]\nclass = a", fillcolor="#399de5"] ;
6 -> 8 ;
9 [label="Temp3pm <= 26.85\ngini = 0.31\nsamples = 179\nvalue = [53, 226]\nclass = a", fillcolor="#67b4eb"] ;
5 -> 9 ;
10 [label="WindSpeed3pm <= 18.0\ngini = 0.28\nsamples = 175\nvalue = [46, 226]\nclass = a", fillcolor="#61b1ea"] ;
9 -> 10 ;
11 [label="Humidity3pm <= 82.5\ngini = 0.03\nsamples = 66\nvalue = [2, 111]\nclass = a", fillcolor="#3d9fe5"] ;
10 -> 11 ;
12 [label="Temp3pm <= 25.3\ngini = 0.12\nsamples = 18\nvalue = [2, 28]\nclass = a", fillcolor="#47a4e7"] ;
11 -> 12 ;
13 [label="RainTomorrow <= 0.5\ngini = 0.07\nsamples = 17\nvalue = [1, 28]\nclass = a", fillcolor="#40a0e6"] ;
12 -> 13 ;
14 [label="gini = 0.0\nsamples = 1\nvalue = [1, 0]\nclass = R", fillcolor="#e58139"] ;
13 -> 14 ;
15 [label="gini = 0.0\nsamples = 16\nvalue = [0, 28]\nclass = a", fillcolor="#399de5"] ;
13 -> 15 ;
16 [label="gini = 0.0\nsamples = 1\nvalue = [1, 0]\nclass = R", fillcolor="#e58139"] ;
12 -> 16 ;
17 [label="gini = 0.0\nsamples = 48\nvalue = [0, 83]\nclass = a", fillcolor="#399de5"] ;
11 -> 17 ;
18 [label="RainTomorrow <= 0.5\ngini = 0.4\nsamples = 109\nvalue = [44, 115]\nclass = a", fillcolor="#85c2ef"] ;
10 -> 18 ;
19 [label="gini = 0.0\nsamples = 29\nvalue = [44, 0]\nclass = R", fillcolor="#e58139"] ;
18 -> 19 ;
20 [label="gini = 0.0\nsamples = 80\nvalue = [0, 115]\nclass = a", fillcolor="#399de5"] ;
18 -> 20 ;
21 [label="gini = 0.0\nsamples = 4\nvalue = [7, 0]\nclass = R", fillcolor="#e58139"] ;
9 -> 21 ;
22 [label="WindSpeed3pm <= 16.0\ngini = 0.3\nsamples = 7274\nvalue = [9362, 2148]\nclass = R", fillcolor="#eb9e66"] ;
0 -> 22 [labeldistance=2.5, labelangle=-45, headlabel="False"] ;
23 [label="Temp3pm <= 25.35\ngini = 0.25\nsamples = 3630\nvalue = [4890, 857]\nclass = R", fillcolor="#ea975c"] ;
22 -> 23 ;
24 [label="Humidity3pm <= 74.5\ngini = 0.31\nsamples = 2484\nvalue = [3216, 757]\nclass = R", fillcolor="#eb9f68"] ;
23 -> 24 ;
25 [label="RainTomorrow <= 0.5\ngini = 0.16\nsamples = 2052\nvalue = [2998, 294]\nclass = R", fillcolor="#e88d4c"] ;
24 -> 25 ;
26 [label="gini = 0.0\nsamples = 1864\nvalue = [2998, 0]\nclass = R", fillcolor="#e58139"] ;
25 -> 26 ;
27 [label="gini = 0.0\nsamples = 188\nvalue = [0, 294]\nclass = a", fillcolor="#399de5"] ;
25 -> 27 ;
28 [label="WindSpeed3pm <= 12.0\ngini = 0.44\nsamples = 432\nvalue = [218, 463]\nclass = a", fillcolor="#96cbf1"] ;
24 -> 28 ;
29 [label="Pressure3pm <= 1019.7\ngini = 0.39\nsamples = 275\nvalue = [115, 313]\nclass = a", fillcolor="#82c1ef"] ;
28 -> 29 ;
30 [label="Humidity3pm <= 84.5\ngini = 0.32\nsamples = 187\nvalue = [60, 235]\nclass = a", fillcolor="#6cb6ec"] ;
29 -> 30 ;
31 [label="WindDir3pm <= 5.5\ngini = 0.47\nsamples = 79\nvalue = [44, 75]\nclass = a", fillcolor="#add6f4"] ;
30 -> 31 ;
32 [label="Pressure3pm <= 1018.5\ngini = 0.5\nsamples = 25\nvalue = [21, 20]\nclass = R", fillcolor="#fef9f6"] ;
31 -> 32 ;
33 [label="WindDir3pm <= 4.5\ngini = 0.45\nsamples = 21\nvalue = [21, 11]\nclass = R", fillcolor="#f3c3a1"] ;
32 -> 33 ;
34 [label="RainTomorrow <= 0.5\ngini = 0.49\nsamples = 16\nvalue = [13, 10]\nclass = R", fillcolor="#f9e2d1"] ;
33 -> 34 ;
35 [label="gini = 0.0\nsamples = 9\nvalue = [13, 0]\nclass = R", fillcolor="#e58139"] ;
34 -> 35 ;
36 [label="gini = 0.0\nsamples = 7\nvalue = [0, 10]\nclass = a", fillcolor="#399de5"] ;
34 -> 36 ;
37 [label="Humidity3pm <= 81.5\ngini = 0.2\nsamples = 5\nvalue = [8, 1]\nclass = R", fillcolor="#e89152"] ;
33 -> 37 ;
38 [label="gini = 0.0\nsamples = 4\nvalue = [8, 0]\nclass = R", fillcolor="#e58139"] ;
37 -> 38 ;
39 [label="gini = 0.0\nsamples = 1\nvalue = [0, 1]\nclass = a", fillcolor="#399de5"] ;
37 -> 39 ;
40 [label="gini = 0.0\nsamples = 4\nvalue = [0, 9]\nclass = a", fillcolor="#399de5"] ;
32 -> 40 ;
41 [label="WindSpeed3pm <= 6.5\ngini = 0.42\nsamples = 54\nvalue = [23, 55]\nclass = a", fillcolor="#8cc6f0"] ;
31 -> 41 ;
42 [label="Humidity3pm <= 82.5\ngini = 0.2\nsamples = 9\nvalue = [2, 16]\nclass = a", fillcolor="#52a9e8"] ;
41 -> 42 ;
43 [label="gini = 0.0\nsamples = 6\nvalue = [0, 14]\nclass = a", fillcolor="#399de5"] ;
42 -> 43 ;
44 [label="Temp3pm <= 14.9\ngini = 0.5\nsamples = 3\nvalue = [2, 2]\nclass = R", fillcolor="#ffffff"] ;
42 -> 44 ;
45 [label="gini = 0.0\nsamples = 1\nvalue = [2, 0]\nclass = R", fillcolor="#e58139"] ;
44 -> 45 ;
46 [label="gini = 0.0\nsamples = 2\nvalue = [0, 2]\nclass = a", fillcolor="#399de5"] ;
44 -> 46 ;
47 [label="Pressure3pm <= 1010.5\ngini = 0.45\nsamples = 45\nvalue = [21, 39]\nclass = a", fillcolor="#a4d2f3"] ;
41 -> 47 ;
48 [label="gini = 0.0\nsamples = 4\nvalue = [0, 7]\nclass = a", fillcolor="#399de5"] ;
47 -> 48 ;
49 [label="Pressure3pm <= 1013.3\ngini = 0.48\nsamples = 41\nvalue = [21, 32]\nclass = a", fillcolor="#bbddf6"] ;
47 -> 49 ;
50 [label="WindSpeed3pm <= 8.0\ngini = 0.38\nsamples = 3\nvalue = [3, 1]\nclass = R", fillcolor="#eeab7b"] ;
49 -> 50 ;
51 [label="gini = 0.0\nsamples = 1\nvalue = [0, 1]\nclass = a", fillcolor="#399de5"] ;
50 -> 51 ;
52 [label="gini = 0.0\nsamples = 2\nvalue = [3, 0]\nclass = R", fillcolor="#e58139"] ;
50 -> 52 ;
53 [label="RainTomorrow <= 0.5\ngini = 0.46\nsamples = 38\nvalue = [18, 31]\nclass = a", fillcolor="#acd6f4"] ;
49 -> 53 ;
54 [label="gini = 0.0\nsamples = 13\nvalue = [18, 0]\nclass = R", fillcolor="#e58139"] ;
53 -> 54 ;
55 [label="gini = 0.0\nsamples = 25\nvalue = [0, 31]\nclass = a", fillcolor="#399de5"] ;
53 -> 55 ;
56 [label="RainTomorrow <= 0.5\ngini = 0.17\nsamples = 108\nvalue = [16, 160]\nclass = a", fillcolor="#4da7e8"] ;
30 -> 56 ;
57 [label="gini = 0.0\nsamples = 11\nvalue = [16, 0]\nclass = R", fillcolor="#e58139"] ;
56 -> 57 ;
58 [label="gini = 0.0\nsamples = 97\nvalue = [0, 160]\nclass = a", fillcolor="#399de5"] ;
56 -> 58 ;
59 [label="RainTomorrow <= 0.5\ngini = 0.49\nsamples = 88\nvalue = [55, 78]\nclass = a", fillcolor="#c5e2f7"] ;
29 -> 59 ;
60 [label="gini = 0.0\nsamples = 37\nvalue = [55, 0]\nclass = R", fillcolor="#e58139"] ;
59 -> 60 ;
61 [label="gini = 0.0\nsamples = 51\nvalue = [0, 78]\nclass = a", fillcolor="#399de5"] ;
59 -> 61 ;
62 [label="Humidity3pm <= 90.5\ngini = 0.48\nsamples = 157\nvalue = [103, 150]\nclass = a", fillcolor="#c1e0f7"] ;
28 -> 62 ;
63 [label="Pressure3pm <= 1015.85\ngini = 0.5\nsamples = 123\nvalue = [97, 108]\nclass = a", fillcolor="#ebf5fc"] ;
62 -> 63 ;
64 [label="RainTomorrow <= 0.5\ngini = 0.46\nsamples = 64\nvalue = [38, 69]\nclass = a", fillcolor="#a6d3f3"] ;
63 -> 64 ;
65 [label="gini = 0.0\nsamples = 23\nvalue = [38, 0]\nclass = R", fillcolor="#e58139"] ;
64 -> 65 ;
66 [label="gini = 0.0\nsamples = 41\nvalue = [0, 69]\nclass = a", fillcolor="#399de5"] ;
64 -> 66 ;
67 [label="Temp3pm <= 18.3\ngini = 0.48\nsamples = 59\nvalue = [59, 39]\nclass = R", fillcolor="#f6d4bc"] ;
63 -> 67 ;
68 [label="Humidity3pm <= 76.5\ngini = 0.48\nsamples = 31\nvalue = [20, 30]\nclass = a", fillcolor="#bddef6"] ;
67 -> 68 ;
69 [label="gini = 0.0\nsamples = 4\nvalue = [6, 0]\nclass = R", fillcolor="#e58139"] ;
68 -> 69 ;
70 [label="RainTomorrow <= 0.5\ngini = 0.43\nsamples = 27\nvalue = [14, 30]\nclass = a", fillcolor="#95cbf1"] ;
68 -> 70 ;
71 [label="gini = 0.0\nsamples = 7\nvalue = [14, 0]\nclass = R", fillcolor="#e58139"] ;
70 -> 71 ;
72 [label="gini = 0.0\nsamples = 20\nvalue = [0, 30]\nclass = a", fillcolor="#399de5"] ;
70 -> 72 ;
73 [label="Humidity3pm <= 89.0\ngini = 0.3\nsamples = 28\nvalue = [39, 9]\nclass = R", fillcolor="#eb9e67"] ;
67 -> 73 ;
74 [label="Temp3pm <= 22.3\ngini = 0.26\nsamples = 27\nvalue = [39, 7]\nclass = R", fillcolor="#ea985d"] ;
73 -> 74 ;
75 [label="RainTomorrow <= 0.5\ngini = 0.07\nsamples = 14\nvalue = [25, 1]\nclass = R", fillcolor="#e68641"] ;
74 -> 75 ;
76 [label="gini = 0.0\nsamples = 13\nvalue = [25, 0]\nclass = R", fillcolor="#e58139"] ;
75 -> 76 ;
77 [label="gini = 0.0\nsamples = 1\nvalue = [0, 1]\nclass = a", fillcolor="#399de5"] ;
75 -> 77 ;
78 [label="Temp3pm <= 23.35\ngini = 0.42\nsamples = 13\nvalue = [14, 6]\nclass = R", fillcolor="#f0b78e"] ;
74 -> 78 ;
79 [label="WindDir3pm <= 12.5\ngini = 0.44\nsamples = 5\nvalue = [2, 4]\nclass = a", fillcolor="#9ccef2"] ;
78 -> 79 ;
80 [label="gini = 0.0\nsamples = 3\nvalue = [0, 4]\nclass = a", fillcolor="#399de5"] ;
79 -> 80 ;
81 [label="gini = 0.0\nsamples = 2\nvalue = [2, 0]\nclass = R", fillcolor="#e58139"] ;
79 -> 81 ;
82 [label="WindSpeed3pm <= 14.0\ngini = 0.24\nsamples = 8\nvalue = [12, 2]\nclass = R", fillcolor="#e9965a"] ;
78 -> 82 ;
83 [label="WindDir3pm <= 5.5\ngini = 0.17\nsamples = 5\nvalue = [10, 1]\nclass = R", fillcolor="#e88e4d"] ;
82 -> 83 ;
84 [label="gini = 0.0\nsamples = 1\nvalue = [0, 1]\nclass = a", fillcolor="#399de5"] ;
83 -> 84 ;
85 [label="gini = 0.0\nsamples = 4\nvalue = [10, 0]\nclass = R", fillcolor="#e58139"] ;
83 -> 85 ;
86 [label="Temp3pm <= 24.7\ngini = 0.44\nsamples = 3\nvalue = [2, 1]\nclass = R", fillcolor="#f2c09c"] ;
82 -> 86 ;
87 [label="Humidity3pm <= 78.5\ngini = 0.5\nsamples = 2\nvalue = [1, 1]\nclass = R", fillcolor="#ffffff"] ;
86 -> 87 ;
88 [label="gini = 0.0\nsamples = 1\nvalue = [1, 0]\nclass = R", fillcolor="#e58139"] ;
87 -> 88 ;
89 [label="gini = 0.0\nsamples = 1\nvalue = [0, 1]\nclass = a", fillcolor="#399de5"] ;
87 -> 89 ;
90 [label="gini = 0.0\nsamples = 1\nvalue = [1, 0]\nclass = R", fillcolor="#e58139"] ;
86 -> 90 ;
91 [label="gini = 0.0\nsamples = 1\nvalue = [0, 2]\nclass = a", fillcolor="#399de5"] ;
73 -> 91 ;
92 [label="RainTomorrow <= 0.5\ngini = 0.22\nsamples = 34\nvalue = [6, 42]\nclass = a", fillcolor="#55abe9"] ;
62 -> 92 ;
93 [label="gini = 0.0\nsamples = 4\nvalue = [6, 0]\nclass = R", fillcolor="#e58139"] ;
92 -> 93 ;
94 [label="gini = 0.0\nsamples = 30\nvalue = [0, 42]\nclass = a", fillcolor="#399de5"] ;
92 -> 94 ;
95 [label="RainTomorrow <= 0.5\ngini = 0.11\nsamples = 1146\nvalue = [1674, 100]\nclass = R", fillcolor="#e78945"] ;
23 -> 95 ;
96 [label="gini = 0.0\nsamples = 1077\nvalue = [1674, 0]\nclass = R", fillcolor="#e58139"] ;
95 -> 96 ;
97 [label="gini = 0.0\nsamples = 69\nvalue = [0, 100]\nclass = a", fillcolor="#399de5"] ;
95 -> 97 ;
98 [label="WindSpeed3pm <= 42.0\ngini = 0.35\nsamples = 3644\nvalue = [4472, 1291]\nclass = R", fillcolor="#eda572"] ;
22 -> 98 ;
99 [label="RainTomorrow <= 0.5\ngini = 0.34\nsamples = 3582\nvalue = [4423, 1238]\nclass = R", fillcolor="#eca470"] ;
98 -> 99 ;
100 [label="gini = 0.0\nsamples = 2807\nvalue = [4423, 0]\nclass = R", fillcolor="#e58139"] ;
99 -> 100 ;
101 [label="gini = 0.0\nsamples = 775\nvalue = [0, 1238]\nclass = a", fillcolor="#399de5"] ;
99 -> 101 ;
102 [label="RainTomorrow <= 0.5\ngini = 0.5\nsamples = 62\nvalue = [49, 53]\nclass = a", fillcolor="#f0f8fd"] ;
98 -> 102 ;
103 [label="gini = 0.0\nsamples = 31\nvalue = [49, 0]\nclass = R", fillcolor="#e58139"] ;
102 -> 103 ;
104 [label="gini = 0.0\nsamples = 31\nvalue = [0, 53]\nclass = a", fillcolor="#399de5"] ;
102 -> 104 ;
}