digraph Tree {
node [shape=box, style="filled, rounded", color="black", fontname="helvetica"] ;
edge [fontname="helvetica"] ;
0 [label="Humidity3pm <= 76.5\ngini = 0.33\nsamples = 8558\nvalue = [10677, 2823]\nclass = R", fillcolor="#eca26d"] ;
1 [label="Pressure3pm <= 1008.55\ngini = 0.23\nsamples = 7457\nvalue = [10193, 1600]\nclass = R", fillcolor="#e99558"] ;
0 -> 1 [labeldistance=2.5, labelangle=45, headlabel="True"] ;
2 [label="Humidity3pm <= 44.5\ngini = 0.35\nsamples = 993\nvalue = [1238, 363]\nclass = R", fillcolor="#eda673"] ;
1 -> 2 ;
3 [label="RainTomorrow <= 0.5\ngini = 0.21\nsamples = 584\nvalue = [811, 113]\nclass = R", fillcolor="#e99355"] ;
2 -> 3 ;
4 [label="gini = 0.0\nsamples = 510\nvalue = [811, 0]\nclass = R", fillcolor="#e58139"] ;
3 -> 4 ;
5 [label="gini = 0.0\nsamples = 74\nvalue = [0, 113]\nclass = a", fillcolor="#399de5"] ;
3 -> 5 ;
6 [label="Temp3pm <= 16.65\ngini = 0.47\nsamples = 409\nvalue = [427, 250]\nclass = R", fillcolor="#f4cbad"] ;
2 -> 6 ;
7 [label="RainTomorrow <= 0.5\ngini = 0.49\nsamples = 60\nvalue = [41, 52]\nclass = a", fillcolor="#d5eafa"] ;
6 -> 7 ;
8 [label="gini = 0.0\nsamples = 26\nvalue = [41, 0]\nclass = R", fillcolor="#e58139"] ;
7 -> 8 ;
9 [label="gini = 0.0\nsamples = 34\nvalue = [0, 52]\nclass = a", fillcolor="#399de5"] ;
7 -> 9 ;
10 [label="RainTomorrow <= 0.5\ngini = 0.45\nsamples = 349\nvalue = [386, 198]\nclass = R", fillcolor="#f2c29f"] ;
6 -> 10 ;
11 [label="gini = 0.0\nsamples = 228\nvalue = [386, 0]\nclass = R", fillcolor="#e58139"] ;
10 -> 11 ;
12 [label="gini = 0.0\nsamples = 121\nvalue = [0, 198]\nclass = a", fillcolor="#399de5"] ;
10 -> 12 ;
13 [label="Humidity3pm <= 58.5\ngini = 0.21\nsamples = 6464\nvalue = [8955, 1237]\nclass = R", fillcolor="#e99254"] ;
1 -> 13 ;
14 [label="RainTomorrow <= 0.5\ngini = 0.11\nsamples = 4492\nvalue = [6623, 428]\nclass = R", fillcolor="#e78946"] ;
13 -> 14 ;
15 [label="gini = 0.0\nsamples = 4203\nvalue = [6623, 0]\nclass = R", fillcolor="#e58139"] ;
14 -> 15 ;
16 [label="gini = 0.0\nsamples = 289\nvalue = [0, 428]\nclass = a", fillcolor="#399de5"] ;
14 -> 16 ;
17 [label="RainTomorrow <= 0.5\ngini = 0.38\nsamples = 1972\nvalue = [2332, 809]\nclass = R", fillcolor="#eead7e"] ;
13 -> 17 ;
18 [label="gini = 0.0\nsamples = 1460\nvalue = [2332, 0]\nclass = R", fillcolor="#e58139"] ;
17 -> 18 ;
19 [label="gini = 0.0\nsamples = 512\nvalue = [0, 809]\nclass = a", fillcolor="#399de5"] ;
17 -> 19 ;
20 [label="Temp3pm <= 20.45\ngini = 0.41\nsamples = 1101\nvalue = [484, 1223]\nclass = a", fillcolor="#87c4ef"] ;
0 -> 20 [labeldistance=2.5, labelangle=-45, headlabel="False"] ;
21 [label="RainTomorrow <= 0.5\ngini = 0.32\nsamples = 652\nvalue = [206, 824]\nclass = a", fillcolor="#6ab6ec"] ;
20 -> 21 ;
22 [label="gini = 0.0\nsamples = 133\nvalue = [206, 0]\nclass = R", fillcolor="#e58139"] ;
21 -> 22 ;
23 [label="gini = 0.0\nsamples = 519\nvalue = [0, 824]\nclass = a", fillcolor="#399de5"] ;
21 -> 23 ;
24 [label="Temp3pm <= 24.35\ngini = 0.48\nsamples = 449\nvalue = [278, 399]\nclass = a", fillcolor="#c3e1f7"] ;
20 -> 24 ;
25 [label="Humidity3pm <= 83.5\ngini = 0.46\nsamples = 354\nvalue = [196, 344]\nclass = a", fillcolor="#aad5f4"] ;
24 -> 25 ;
26 [label="RainTomorrow <= 0.5\ngini = 0.5\nsamples = 192\nvalue = [145, 145]\nclass = R", fillcolor="#ffffff"] ;
25 -> 26 ;
27 [label="gini = 0.0\nsamples = 94\nvalue = [145, 0]\nclass = R", fillcolor="#e58139"] ;
26 -> 27 ;
28 [label="gini = 0.0\nsamples = 98\nvalue = [0, 145]\nclass = a", fillcolor="#399de5"] ;
26 -> 28 ;
29 [label="Pressure3pm <= 1013.45\ngini = 0.32\nsamples = 162\nvalue = [51, 199]\nclass = a", fillcolor="#6cb6ec"] ;
25 -> 29 ;
30 [label="Humidity3pm <= 86.5\ngini = 0.23\nsamples = 103\nvalue = [22, 141]\nclass = a", fillcolor="#58ace9"] ;
29 -> 30 ;
31 [label="RainTomorrow <= 0.5\ngini = 0.41\nsamples = 28\nvalue = [13, 33]\nclass = a", fillcolor="#87c4ef"] ;
30 -> 31 ;
32 [label="gini = 0.0\nsamples = 9\nvalue = [13, 0]\nclass = R", fillcolor="#e58139"] ;
31 -> 32 ;
33 [label="gini = 0.0\nsamples = 19\nvalue = [0, 33]\nclass = a", fillcolor="#399de5"] ;
31 -> 33 ;
34 [label="RainTomorrow <= 0.5\ngini = 0.14\nsamples = 75\nvalue = [9, 108]\nclass = a", fillcolor="#49a5e7"] ;
30 -> 34 ;
35 [label="gini = 0.0\nsamples = 8\nvalue = [9, 0]\nclass = R", fillcolor="#e58139"] ;
34 -> 35 ;
36 [label="gini = 0.0\nsamples = 67\nvalue = [0, 108]\nclass = a", fillcolor="#399de5"] ;
34 -> 36 ;
37 [label="Temp3pm <= 23.15\ngini = 0.44\nsamples = 59\nvalue = [29, 58]\nclass = a", fillcolor="#9ccef2"] ;
29 -> 37 ;
38 [label="Pressure3pm <= 1015.95\ngini = 0.38\nsamples = 49\nvalue = [18, 52]\nclass = a", fillcolor="#7ebfee"] ;
37 -> 38 ;
39 [label="Humidity3pm <= 91.5\ngini = 0.5\nsamples = 22\nvalue = [17, 15]\nclass = R", fillcolor="#fcf0e8"] ;
38 -> 39 ;
40 [label="RainTomorrow <= 0.5\ngini = 0.42\nsamples = 14\nvalue = [16, 7]\nclass = R", fillcolor="#f0b890"] ;
39 -> 40 ;
41 [label="gini = 0.0\nsamples = 9\nvalue = [16, 0]\nclass = R", fillcolor="#e58139"] ;
40 -> 41 ;
42 [label="gini = 0.0\nsamples = 5\nvalue = [0, 7]\nclass = a", fillcolor="#399de5"] ;
40 -> 42 ;
43 [label="WindSpeed3pm <= 14.0\ngini = 0.2\nsamples = 8\nvalue = [1, 8]\nclass = a", fillcolor="#52a9e8"] ;
39 -> 43 ;
44 [label="WindDir3pm <= 9.5\ngini = 0.5\nsamples = 2\nvalue = [1, 1]\nclass = R", fillcolor="#ffffff"] ;
43 -> 44 ;
45 [label="gini = 0.0\nsamples = 1\nvalue = [0, 1]\nclass = a", fillcolor="#399de5"] ;
44 -> 45 ;
46 [label="gini = 0.0\nsamples = 1\nvalue = [1, 0]\nclass = R", fillcolor="#e58139"] ;
44 -> 46 ;
47 [label="gini = 0.0\nsamples = 6\nvalue = [0, 7]\nclass = a", fillcolor="#399de5"] ;
43 -> 47 ;
48 [label="WindSpeed3pm <= 43.5\ngini = 0.05\nsamples = 27\nvalue = [1, 37]\nclass = a", fillcolor="#3ea0e6"] ;
38 -> 48 ;
49 [label="gini = 0.0\nsamples = 25\nvalue = [0, 36]\nclass = a", fillcolor="#399de5"] ;
48 -> 49 ;
50 [label="RainTomorrow <= 0.5\ngini = 0.5\nsamples = 2\nvalue = [1, 1]\nclass = R", fillcolor="#ffffff"] ;
48 -> 50 ;
51 [label="gini = 0.0\nsamples = 1\nvalue = [1, 0]\nclass = R", fillcolor="#e58139"] ;
50 -> 51 ;
52 [label="gini = 0.0\nsamples = 1\nvalue = [0, 1]\nclass = a", fillcolor="#399de5"] ;
50 -> 52 ;
53 [label="RainTomorrow <= 0.5\ngini = 0.46\nsamples = 10\nvalue = [11, 6]\nclass = R", fillcolor="#f3c6a5"] ;
37 -> 53 ;
54 [label="gini = 0.0\nsamples = 6\nvalue = [11, 0]\nclass = R", fillcolor="#e58139"] ;
53 -> 54 ;
55 [label="gini = 0.0\nsamples = 4\nvalue = [0, 6]\nclass = a", fillcolor="#399de5"] ;
53 -> 55 ;
56 [label="RainTomorrow <= 0.5\ngini = 0.48\nsamples = 95\nvalue = [82, 55]\nclass = R", fillcolor="#f6d6be"] ;
24 -> 56 ;
57 [label="gini = 0.0\nsamples = 58\nvalue = [82, 0]\nclass = R", fillcolor="#e58139"] ;
56 -> 57 ;
58 [label="gini = 0.0\nsamples = 37\nvalue = [0, 55]\nclass = a", fillcolor="#399de5"] ;
56 -> 58 ;
}