digraph Tree {
node [shape=box, style="filled, rounded", color="black", fontname="helvetica"] ;
edge [fontname="helvetica"] ;
0 [label="Temp3pm <= 24.25\ngini = 0.33\nsamples = 8512\nvalue = [10731, 2769]\nclass = R", fillcolor="#eca26c"] ;
1 [label="Temp3pm <= 13.65\ngini = 0.38\nsamples = 5374\nvalue = [6289, 2155]\nclass = R", fillcolor="#eeac7d"] ;
0 -> 1 [labeldistance=2.5, labelangle=45, headlabel="True"] ;
2 [label="Temp3pm <= 10.35\ngini = 0.49\nsamples = 415\nvalue = [383, 288]\nclass = R", fillcolor="#f9e0ce"] ;
1 -> 2 ;
3 [label="Pressure3pm <= 1014.8\ngini = 0.44\nsamples = 57\nvalue = [28, 59]\nclass = a", fillcolor="#97ccf1"] ;
2 -> 3 ;
4 [label="WindDir3pm <= 0.5\ngini = 0.12\nsamples = 28\nvalue = [3, 42]\nclass = a", fillcolor="#47a4e7"] ;
3 -> 4 ;
5 [label="RainTomorrow <= 0.5\ngini = 0.3\nsamples = 7\nvalue = [2, 9]\nclass = a", fillcolor="#65b3eb"] ;
4 -> 5 ;
6 [label="gini = 0.0\nsamples = 2\nvalue = [2, 0]\nclass = R", fillcolor="#e58139"] ;
5 -> 6 ;
7 [label="gini = 0.0\nsamples = 5\nvalue = [0, 9]\nclass = a", fillcolor="#399de5"] ;
5 -> 7 ;
8 [label="Pressure3pm <= 1011.55\ngini = 0.06\nsamples = 21\nvalue = [1, 33]\nclass = a", fillcolor="#3fa0e6"] ;
4 -> 8 ;
9 [label="gini = 0.0\nsamples = 17\nvalue = [0, 27]\nclass = a", fillcolor="#399de5"] ;
8 -> 9 ;
10 [label="Pressure3pm <= 1012.1\ngini = 0.24\nsamples = 4\nvalue = [1, 6]\nclass = a", fillcolor="#5aade9"] ;
8 -> 10 ;
11 [label="gini = 0.0\nsamples = 1\nvalue = [1, 0]\nclass = R", fillcolor="#e58139"] ;
10 -> 11 ;
12 [label="gini = 0.0\nsamples = 3\nvalue = [0, 6]\nclass = a", fillcolor="#399de5"] ;
10 -> 12 ;
13 [label="Temp3pm <= 9.95\ngini = 0.48\nsamples = 29\nvalue = [25, 17]\nclass = R", fillcolor="#f7d7c0"] ;
3 -> 13 ;
14 [label="Pressure3pm <= 1015.15\ngini = 0.44\nsamples = 23\nvalue = [23, 11]\nclass = R", fillcolor="#f1bd98"] ;
13 -> 14 ;
15 [label="gini = 0.0\nsamples = 3\nvalue = [4, 0]\nclass = R", fillcolor="#e58139"] ;
14 -> 15 ;
16 [label="Humidity3pm <= 88.5\ngini = 0.46\nsamples = 20\nvalue = [19, 11]\nclass = R", fillcolor="#f4caac"] ;
14 -> 16 ;
17 [label="RainTomorrow <= 0.5\ngini = 0.33\nsamples = 16\nvalue = [19, 5]\nclass = R", fillcolor="#eca26d"] ;
16 -> 17 ;
18 [label="gini = 0.0\nsamples = 12\nvalue = [19, 0]\nclass = R", fillcolor="#e58139"] ;
17 -> 18 ;
19 [label="gini = 0.0\nsamples = 4\nvalue = [0, 5]\nclass = a", fillcolor="#399de5"] ;
17 -> 19 ;
20 [label="gini = 0.0\nsamples = 4\nvalue = [0, 6]\nclass = a", fillcolor="#399de5"] ;
16 -> 20 ;
21 [label="RainTomorrow <= 0.5\ngini = 0.38\nsamples = 6\nvalue = [2, 6]\nclass = a", fillcolor="#7bbeee"] ;
13 -> 21 ;
22 [label="gini = 0.0\nsamples = 2\nvalue = [2, 0]\nclass = R", fillcolor="#e58139"] ;
21 -> 22 ;
23 [label="gini = 0.0\nsamples = 4\nvalue = [0, 6]\nclass = a", fillcolor="#399de5"] ;
21 -> 23 ;
24 [label="RainTomorrow <= 0.5\ngini = 0.48\nsamples = 358\nvalue = [355, 229]\nclass = R", fillcolor="#f6d2b9"] ;
2 -> 24 ;
25 [label="gini = 0.0\nsamples = 221\nvalue = [355, 0]\nclass = R", fillcolor="#e58139"] ;
24 -> 25 ;
26 [label="gini = 0.0\nsamples = 137\nvalue = [0, 229]\nclass = a", fillcolor="#399de5"] ;
24 -> 26 ;
27 [label="RainTomorrow <= 0.5\ngini = 0.36\nsamples = 4959\nvalue = [5906, 1867]\nclass = R", fillcolor="#eda978"] ;
1 -> 27 ;
28 [label="gini = 0.0\nsamples = 3772\nvalue = [5906, 0]\nclass = R", fillcolor="#e58139"] ;
27 -> 28 ;
29 [label="gini = 0.0\nsamples = 1187\nvalue = [0, 1867]\nclass = a", fillcolor="#399de5"] ;
27 -> 29 ;
30 [label="RainTomorrow <= 0.5\ngini = 0.21\nsamples = 3138\nvalue = [4442, 614]\nclass = R", fillcolor="#e99254"] ;
0 -> 30 [labeldistance=2.5, labelangle=-45, headlabel="False"] ;
31 [label="gini = 0.0\nsamples = 2748\nvalue = [4442, 0]\nclass = R", fillcolor="#e58139"] ;
30 -> 31 ;
32 [label="gini = 0.0\nsamples = 390\nvalue = [0, 614]\nclass = a", fillcolor="#399de5"] ;
30 -> 32 ;
}