digraph Tree {
node [shape=box, style="filled, rounded", color="black", fontname="helvetica"] ;
edge [fontname="helvetica"] ;
0 [label="Humidity3pm <= 75.5\ngini = 0.32\nsamples = 8612\nvalue = [10763, 2737]\nclass = R", fillcolor="#eca16b"] ;
1 [label="WindSpeed3pm <= 21.0\ngini = 0.22\nsamples = 7433\nvalue = [10161, 1478]\nclass = R", fillcolor="#e99356"] ;
0 -> 1 [labeldistance=2.5, labelangle=45, headlabel="True"] ;
2 [label="RainTomorrow <= 0.5\ngini = 0.19\nsamples = 5426\nvalue = [7573, 893]\nclass = R", fillcolor="#e89050"] ;
1 -> 2 ;
3 [label="gini = 0.0\nsamples = 4827\nvalue = [7573, 0]\nclass = R", fillcolor="#e58139"] ;
2 -> 3 ;
4 [label="gini = 0.0\nsamples = 599\nvalue = [0, 893]\nclass = a", fillcolor="#399de5"] ;
2 -> 4 ;
5 [label="Humidity3pm <= 66.5\ngini = 0.3\nsamples = 2007\nvalue = [2588, 585]\nclass = R", fillcolor="#eb9d66"] ;
1 -> 5 ;
6 [label="RainTomorrow <= 0.5\ngini = 0.24\nsamples = 1568\nvalue = [2140, 344]\nclass = R", fillcolor="#e99559"] ;
5 -> 6 ;
7 [label="gini = 0.0\nsamples = 1356\nvalue = [2140, 0]\nclass = R", fillcolor="#e58139"] ;
6 -> 7 ;
8 [label="gini = 0.0\nsamples = 212\nvalue = [0, 344]\nclass = a", fillcolor="#399de5"] ;
6 -> 8 ;
9 [label="WindDir3pm <= 13.5\ngini = 0.45\nsamples = 439\nvalue = [448, 241]\nclass = R", fillcolor="#f3c5a4"] ;
5 -> 9 ;
10 [label="RainTomorrow <= 0.5\ngini = 0.49\nsamples = 273\nvalue = [251, 187]\nclass = R", fillcolor="#f8dfcd"] ;
9 -> 10 ;
11 [label="gini = 0.0\nsamples = 155\nvalue = [251, 0]\nclass = R", fillcolor="#e58139"] ;
10 -> 11 ;
12 [label="gini = 0.0\nsamples = 118\nvalue = [0, 187]\nclass = a", fillcolor="#399de5"] ;
10 -> 12 ;
13 [label="Pressure3pm <= 1013.65\ngini = 0.34\nsamples = 166\nvalue = [197, 54]\nclass = R", fillcolor="#eca46f"] ;
9 -> 13 ;
14 [label="Temp3pm <= 30.25\ngini = 0.47\nsamples = 83\nvalue = [77, 47]\nclass = R", fillcolor="#f5ceb2"] ;
13 -> 14 ;
15 [label="RainTomorrow <= 0.5\ngini = 0.44\nsamples = 80\nvalue = [77, 37]\nclass = R", fillcolor="#f1be98"] ;
14 -> 15 ;
16 [label="gini = 0.0\nsamples = 57\nvalue = [77, 0]\nclass = R", fillcolor="#e58139"] ;
15 -> 16 ;
17 [label="gini = 0.0\nsamples = 23\nvalue = [0, 37]\nclass = a", fillcolor="#399de5"] ;
15 -> 17 ;
18 [label="gini = 0.0\nsamples = 3\nvalue = [0, 10]\nclass = a", fillcolor="#399de5"] ;
14 -> 18 ;
19 [label="Temp3pm <= 29.6\ngini = 0.1\nsamples = 83\nvalue = [120, 7]\nclass = R", fillcolor="#e78845"] ;
13 -> 19 ;
20 [label="WindSpeed3pm <= 29.0\ngini = 0.09\nsamples = 82\nvalue = [120, 6]\nclass = R", fillcolor="#e68743"] ;
19 -> 20 ;
21 [label="WindDir3pm <= 14.5\ngini = 0.17\nsamples = 40\nvalue = [56, 6]\nclass = R", fillcolor="#e88e4e"] ;
20 -> 21 ;
22 [label="Temp3pm <= 20.6\ngini = 0.35\nsamples = 10\nvalue = [14, 4]\nclass = R", fillcolor="#eca572"] ;
21 -> 22 ;
23 [label="Humidity3pm <= 71.5\ngini = 0.5\nsamples = 4\nvalue = [4, 4]\nclass = R", fillcolor="#ffffff"] ;
22 -> 23 ;
24 [label="gini = 0.0\nsamples = 2\nvalue = [0, 4]\nclass = a", fillcolor="#399de5"] ;
23 -> 24 ;
25 [label="gini = 0.0\nsamples = 2\nvalue = [4, 0]\nclass = R", fillcolor="#e58139"] ;
23 -> 25 ;
26 [label="gini = 0.0\nsamples = 6\nvalue = [10, 0]\nclass = R", fillcolor="#e58139"] ;
22 -> 26 ;
27 [label="Pressure3pm <= 1017.1\ngini = 0.09\nsamples = 30\nvalue = [42, 2]\nclass = R", fillcolor="#e68742"] ;
21 -> 27 ;
28 [label="RainTomorrow <= 0.5\ngini = 0.16\nsamples = 15\nvalue = [21, 2]\nclass = R", fillcolor="#e78d4c"] ;
27 -> 28 ;
29 [label="gini = 0.0\nsamples = 13\nvalue = [21, 0]\nclass = R", fillcolor="#e58139"] ;
28 -> 29 ;
30 [label="gini = 0.0\nsamples = 2\nvalue = [0, 2]\nclass = a", fillcolor="#399de5"] ;
28 -> 30 ;
31 [label="gini = 0.0\nsamples = 15\nvalue = [21, 0]\nclass = R", fillcolor="#e58139"] ;
27 -> 31 ;
32 [label="gini = 0.0\nsamples = 42\nvalue = [64, 0]\nclass = R", fillcolor="#e58139"] ;
20 -> 32 ;
33 [label="gini = 0.0\nsamples = 1\nvalue = [0, 1]\nclass = a", fillcolor="#399de5"] ;
19 -> 33 ;
34 [label="WindDir3pm <= 13.5\ngini = 0.44\nsamples = 1179\nvalue = [602, 1259]\nclass = a", fillcolor="#98ccf1"] ;
0 -> 34 [labeldistance=2.5, labelangle=-45, headlabel="False"] ;
35 [label="RainTomorrow <= 0.5\ngini = 0.42\nsamples = 953\nvalue = [445, 1053]\nclass = a", fillcolor="#8dc6f0"] ;
34 -> 35 ;
36 [label="gini = 0.0\nsamples = 283\nvalue = [445, 0]\nclass = R", fillcolor="#e58139"] ;
35 -> 36 ;
37 [label="gini = 0.0\nsamples = 670\nvalue = [0, 1053]\nclass = a", fillcolor="#399de5"] ;
35 -> 37 ;
38 [label="Temp3pm <= 20.45\ngini = 0.49\nsamples = 226\nvalue = [157, 206]\nclass = a", fillcolor="#d0e8f9"] ;
34 -> 38 ;
39 [label="RainTomorrow <= 0.5\ngini = 0.41\nsamples = 92\nvalue = [43, 107]\nclass = a", fillcolor="#89c4ef"] ;
38 -> 39 ;
40 [label="gini = 0.0\nsamples = 27\nvalue = [43, 0]\nclass = R", fillcolor="#e58139"] ;
39 -> 40 ;
41 [label="gini = 0.0\nsamples = 65\nvalue = [0, 107]\nclass = a", fillcolor="#399de5"] ;
39 -> 41 ;
42 [label="WindSpeed3pm <= 18.0\ngini = 0.5\nsamples = 134\nvalue = [114, 99]\nclass = R", fillcolor="#fceee5"] ;
38 -> 42 ;
43 [label="WindSpeed3pm <= 6.5\ngini = 0.49\nsamples = 33\nvalue = [22, 29]\nclass = a", fillcolor="#cfe7f9"] ;
42 -> 43 ;
44 [label="RainTomorrow <= 0.5\ngini = 0.32\nsamples = 2\nvalue = [4, 1]\nclass = R", fillcolor="#eca06a"] ;
43 -> 44 ;
45 [label="gini = 0.0\nsamples = 1\nvalue = [4, 0]\nclass = R", fillcolor="#e58139"] ;
44 -> 45 ;
46 [label="gini = 0.0\nsamples = 1\nvalue = [0, 1]\nclass = a", fillcolor="#399de5"] ;
44 -> 46 ;
47 [label="Temp3pm <= 23.75\ngini = 0.48\nsamples = 31\nvalue = [18, 28]\nclass = a", fillcolor="#b8dcf6"] ;
43 -> 47 ;
48 [label="Humidity3pm <= 89.5\ngini = 0.32\nsamples = 19\nvalue = [6, 24]\nclass = a", fillcolor="#6ab6ec"] ;
47 -> 48 ;
49 [label="WindSpeed3pm <= 16.0\ngini = 0.39\nsamples = 15\nvalue = [6, 17]\nclass = a", fillcolor="#7fc0ee"] ;
48 -> 49 ;
50 [label="WindSpeed3pm <= 10.0\ngini = 0.48\nsamples = 8\nvalue = [4, 6]\nclass = a", fillcolor="#bddef6"] ;
49 -> 50 ;
51 [label="gini = 0.0\nsamples = 2\nvalue = [0, 3]\nclass = a", fillcolor="#399de5"] ;
50 -> 51 ;
52 [label="RainTomorrow <= 0.5\ngini = 0.49\nsamples = 6\nvalue = [4, 3]\nclass = R", fillcolor="#f8e0ce"] ;
50 -> 52 ;
53 [label="gini = 0.0\nsamples = 4\nvalue = [4, 0]\nclass = R", fillcolor="#e58139"] ;
52 -> 53 ;
54 [label="gini = 0.0\nsamples = 2\nvalue = [0, 3]\nclass = a", fillcolor="#399de5"] ;
52 -> 54 ;
55 [label="RainTomorrow <= 0.5\ngini = 0.26\nsamples = 7\nvalue = [2, 11]\nclass = a", fillcolor="#5dafea"] ;
49 -> 55 ;
56 [label="gini = 0.0\nsamples = 2\nvalue = [2, 0]\nclass = R", fillcolor="#e58139"] ;
55 -> 56 ;
57 [label="gini = 0.0\nsamples = 5\nvalue = [0, 11]\nclass = a", fillcolor="#399de5"] ;
55 -> 57 ;
58 [label="gini = 0.0\nsamples = 4\nvalue = [0, 7]\nclass = a", fillcolor="#399de5"] ;
48 -> 58 ;
59 [label="Pressure3pm <= 1009.1\ngini = 0.38\nsamples = 12\nvalue = [12, 4]\nclass = R", fillcolor="#eeab7b"] ;
47 -> 59 ;
60 [label="gini = 0.0\nsamples = 2\nvalue = [0, 2]\nclass = a", fillcolor="#399de5"] ;
59 -> 60 ;
61 [label="RainTomorrow <= 0.5\ngini = 0.24\nsamples = 10\nvalue = [12, 2]\nclass = R", fillcolor="#e9965a"] ;
59 -> 61 ;
62 [label="gini = 0.0\nsamples = 8\nvalue = [12, 0]\nclass = R", fillcolor="#e58139"] ;
61 -> 62 ;
63 [label="gini = 0.0\nsamples = 2\nvalue = [0, 2]\nclass = a", fillcolor="#399de5"] ;
61 -> 63 ;
64 [label="RainTomorrow <= 0.5\ngini = 0.49\nsamples = 101\nvalue = [92, 70]\nclass = R", fillcolor="#f9e1d0"] ;
42 -> 64 ;
65 [label="gini = 0.0\nsamples = 54\nvalue = [92, 0]\nclass = R", fillcolor="#e58139"] ;
64 -> 65 ;
66 [label="gini = 0.0\nsamples = 47\nvalue = [0, 70]\nclass = a", fillcolor="#399de5"] ;
64 -> 66 ;
}