digraph Tree {
node [shape=box, style="filled, rounded", color="black", fontname="helvetica"] ;
edge [fontname="helvetica"] ;
0 [label="Temp3pm <= 25.85\ngini = 0.33\nsamples = 8542\nvalue = [10670, 2830]\nclass = R", fillcolor="#eca26e"] ;
1 [label="Pressure3pm <= 1011.15\ngini = 0.38\nsamples = 6082\nvalue = [7192, 2399]\nclass = R", fillcolor="#eeab7b"] ;
0 -> 1 [labeldistance=2.5, labelangle=45, headlabel="True"] ;
2 [label="Temp3pm <= 14.65\ngini = 0.49\nsamples = 1087\nvalue = [1018, 721]\nclass = R", fillcolor="#f7dac5"] ;
1 -> 2 ;
3 [label="Humidity3pm <= 75.5\ngini = 0.35\nsamples = 120\nvalue = [43, 151]\nclass = a", fillcolor="#71b9ec"] ;
2 -> 3 ;
4 [label="RainTomorrow <= 0.5\ngini = 0.49\nsamples = 44\nvalue = [35, 44]\nclass = a", fillcolor="#d7ebfa"] ;
3 -> 4 ;
5 [label="gini = 0.0\nsamples = 21\nvalue = [35, 0]\nclass = R", fillcolor="#e58139"] ;
4 -> 5 ;
6 [label="gini = 0.0\nsamples = 23\nvalue = [0, 44]\nclass = a", fillcolor="#399de5"] ;
4 -> 6 ;
7 [label="Humidity3pm <= 91.5\ngini = 0.13\nsamples = 76\nvalue = [8, 107]\nclass = a", fillcolor="#48a4e7"] ;
3 -> 7 ;
8 [label="Humidity3pm <= 89.5\ngini = 0.19\nsamples = 50\nvalue = [8, 66]\nclass = a", fillcolor="#51a9e8"] ;
7 -> 8 ;
9 [label="Temp3pm <= 14.55\ngini = 0.12\nsamples = 45\nvalue = [4, 61]\nclass = a", fillcolor="#46a3e7"] ;
8 -> 9 ;
10 [label="Humidity3pm <= 78.5\ngini = 0.09\nsamples = 44\nvalue = [3, 61]\nclass = a", fillcolor="#43a2e6"] ;
9 -> 10 ;
11 [label="RainTomorrow <= 0.5\ngini = 0.32\nsamples = 7\nvalue = [2, 8]\nclass = a", fillcolor="#6ab6ec"] ;
10 -> 11 ;
12 [label="gini = 0.0\nsamples = 1\nvalue = [2, 0]\nclass = R", fillcolor="#e58139"] ;
11 -> 12 ;
13 [label="gini = 0.0\nsamples = 6\nvalue = [0, 8]\nclass = a", fillcolor="#399de5"] ;
11 -> 13 ;
14 [label="Pressure3pm <= 998.6\ngini = 0.04\nsamples = 37\nvalue = [1, 53]\nclass = a", fillcolor="#3d9fe5"] ;
10 -> 14 ;
15 [label="Temp3pm <= 11.95\ngini = 0.24\nsamples = 5\nvalue = [1, 6]\nclass = a", fillcolor="#5aade9"] ;
14 -> 15 ;
16 [label="gini = 0.0\nsamples = 2\nvalue = [0, 3]\nclass = a", fillcolor="#399de5"] ;
15 -> 16 ;
17 [label="Humidity3pm <= 82.5\ngini = 0.38\nsamples = 3\nvalue = [1, 3]\nclass = a", fillcolor="#7bbeee"] ;
15 -> 17 ;
18 [label="gini = 0.0\nsamples = 1\nvalue = [1, 0]\nclass = R", fillcolor="#e58139"] ;
17 -> 18 ;
19 [label="gini = 0.0\nsamples = 2\nvalue = [0, 3]\nclass = a", fillcolor="#399de5"] ;
17 -> 19 ;
20 [label="gini = 0.0\nsamples = 32\nvalue = [0, 47]\nclass = a", fillcolor="#399de5"] ;
14 -> 20 ;
21 [label="gini = 0.0\nsamples = 1\nvalue = [1, 0]\nclass = R", fillcolor="#e58139"] ;
9 -> 21 ;
22 [label="Pressure3pm <= 1009.05\ngini = 0.49\nsamples = 5\nvalue = [4, 5]\nclass = a", fillcolor="#d7ebfa"] ;
8 -> 22 ;
23 [label="gini = 0.0\nsamples = 2\nvalue = [0, 3]\nclass = a", fillcolor="#399de5"] ;
22 -> 23 ;
24 [label="RainTomorrow <= 0.5\ngini = 0.44\nsamples = 3\nvalue = [4, 2]\nclass = R", fillcolor="#f2c09c"] ;
22 -> 24 ;
25 [label="gini = 0.0\nsamples = 2\nvalue = [4, 0]\nclass = R", fillcolor="#e58139"] ;
24 -> 25 ;
26 [label="gini = 0.0\nsamples = 1\nvalue = [0, 2]\nclass = a", fillcolor="#399de5"] ;
24 -> 26 ;
27 [label="gini = 0.0\nsamples = 26\nvalue = [0, 41]\nclass = a", fillcolor="#399de5"] ;
7 -> 27 ;
28 [label="WindDir3pm <= 5.5\ngini = 0.47\nsamples = 967\nvalue = [975, 570]\nclass = R", fillcolor="#f4cbad"] ;
2 -> 28 ;
29 [label="Humidity3pm <= 76.5\ngini = 0.37\nsamples = 433\nvalue = [506, 165]\nclass = R", fillcolor="#edaa7a"] ;
28 -> 29 ;
30 [label="RainTomorrow <= 0.5\ngini = 0.27\nsamples = 378\nvalue = [491, 96]\nclass = R", fillcolor="#ea9a60"] ;
29 -> 30 ;
31 [label="gini = 0.0\nsamples = 312\nvalue = [491, 0]\nclass = R", fillcolor="#e58139"] ;
30 -> 31 ;
32 [label="gini = 0.0\nsamples = 66\nvalue = [0, 96]\nclass = a", fillcolor="#399de5"] ;
30 -> 32 ;
33 [label="Humidity3pm <= 83.0\ngini = 0.29\nsamples = 55\nvalue = [15, 69]\nclass = a", fillcolor="#64b2eb"] ;
29 -> 33 ;
34 [label="RainTomorrow <= 0.5\ngini = 0.49\nsamples = 24\nvalue = [13, 18]\nclass = a", fillcolor="#c8e4f8"] ;
33 -> 34 ;
35 [label="gini = 0.0\nsamples = 10\nvalue = [13, 0]\nclass = R", fillcolor="#e58139"] ;
34 -> 35 ;
36 [label="gini = 0.0\nsamples = 14\nvalue = [0, 18]\nclass = a", fillcolor="#399de5"] ;
34 -> 36 ;
37 [label="WindDir3pm <= 3.5\ngini = 0.07\nsamples = 31\nvalue = [2, 51]\nclass = a", fillcolor="#41a1e6"] ;
33 -> 37 ;
38 [label="Temp3pm <= 22.8\ngini = 0.04\nsamples = 24\nvalue = [1, 43]\nclass = a", fillcolor="#3e9fe6"] ;
37 -> 38 ;
39 [label="gini = 0.0\nsamples = 17\nvalue = [0, 31]\nclass = a", fillcolor="#399de5"] ;
38 -> 39 ;
40 [label="Temp3pm <= 23.0\ngini = 0.14\nsamples = 7\nvalue = [1, 12]\nclass = a", fillcolor="#49a5e7"] ;
38 -> 40 ;
41 [label="gini = 0.0\nsamples = 1\nvalue = [1, 0]\nclass = R", fillcolor="#e58139"] ;
40 -> 41 ;
42 [label="gini = 0.0\nsamples = 6\nvalue = [0, 12]\nclass = a", fillcolor="#399de5"] ;
40 -> 42 ;
43 [label="WindDir3pm <= 4.5\ngini = 0.2\nsamples = 7\nvalue = [1, 8]\nclass = a", fillcolor="#52a9e8"] ;
37 -> 43 ;
44 [label="Temp3pm <= 19.65\ngini = 0.5\nsamples = 2\nvalue = [1, 1]\nclass = R", fillcolor="#ffffff"] ;
43 -> 44 ;
45 [label="gini = 0.0\nsamples = 1\nvalue = [0, 1]\nclass = a", fillcolor="#399de5"] ;
44 -> 45 ;
46 [label="gini = 0.0\nsamples = 1\nvalue = [1, 0]\nclass = R", fillcolor="#e58139"] ;
44 -> 46 ;
47 [label="gini = 0.0\nsamples = 5\nvalue = [0, 7]\nclass = a", fillcolor="#399de5"] ;
43 -> 47 ;
48 [label="RainTomorrow <= 0.5\ngini = 0.5\nsamples = 534\nvalue = [469, 405]\nclass = R", fillcolor="#fbeee4"] ;
28 -> 48 ;
49 [label="gini = 0.0\nsamples = 286\nvalue = [469, 0]\nclass = R", fillcolor="#e58139"] ;
48 -> 49 ;
50 [label="gini = 0.0\nsamples = 248\nvalue = [0, 405]\nclass = a", fillcolor="#399de5"] ;
48 -> 50 ;
51 [label="Pressure3pm <= 1019.65\ngini = 0.34\nsamples = 4995\nvalue = [6174, 1678]\nclass = R", fillcolor="#eca36f"] ;
1 -> 51 ;
52 [label="Temp3pm <= 16.35\ngini = 0.37\nsamples = 2913\nvalue = [3468, 1150]\nclass = R", fillcolor="#eeab7b"] ;
51 -> 52 ;
53 [label="RainTomorrow <= 0.5\ngini = 0.48\nsamples = 469\nvalue = [446, 293]\nclass = R", fillcolor="#f6d4bb"] ;
52 -> 53 ;
54 [label="gini = 0.0\nsamples = 298\nvalue = [446, 0]\nclass = R", fillcolor="#e58139"] ;
53 -> 54 ;
55 [label="gini = 0.0\nsamples = 171\nvalue = [0, 293]\nclass = a", fillcolor="#399de5"] ;
53 -> 55 ;
56 [label="Humidity3pm <= 70.5\ngini = 0.34\nsamples = 2444\nvalue = [3022, 857]\nclass = R", fillcolor="#eca571"] ;
52 -> 56 ;
57 [label="Humidity3pm <= 56.5\ngini = 0.2\nsamples = 1800\nvalue = [2513, 318]\nclass = R", fillcolor="#e89152"] ;
56 -> 57 ;
58 [label="Humidity3pm <= 45.5\ngini = 0.12\nsamples = 1154\nvalue = [1714, 115]\nclass = R", fillcolor="#e78946"] ;
57 -> 58 ;
59 [label="RainTomorrow <= 0.5\ngini = 0.07\nsamples = 778\nvalue = [1179, 45]\nclass = R", fillcolor="#e68641"] ;
58 -> 59 ;
60 [label="gini = 0.0\nsamples = 750\nvalue = [1179, 0]\nclass = R", fillcolor="#e58139"] ;
59 -> 60 ;
61 [label="gini = 0.0\nsamples = 28\nvalue = [0, 45]\nclass = a", fillcolor="#399de5"] ;
59 -> 61 ;
62 [label="RainTomorrow <= 0.5\ngini = 0.2\nsamples = 376\nvalue = [535, 70]\nclass = R", fillcolor="#e89153"] ;
58 -> 62 ;
63 [label="gini = 0.0\nsamples = 331\nvalue = [535, 0]\nclass = R", fillcolor="#e58139"] ;
62 -> 63 ;
64 [label="gini = 0.0\nsamples = 45\nvalue = [0, 70]\nclass = a", fillcolor="#399de5"] ;
62 -> 64 ;
65 [label="RainTomorrow <= 0.5\ngini = 0.32\nsamples = 646\nvalue = [799, 203]\nclass = R", fillcolor="#eca16b"] ;
57 -> 65 ;
66 [label="gini = 0.0\nsamples = 511\nvalue = [799, 0]\nclass = R", fillcolor="#e58139"] ;
65 -> 66 ;
67 [label="gini = 0.0\nsamples = 135\nvalue = [0, 203]\nclass = a", fillcolor="#399de5"] ;
65 -> 67 ;
68 [label="RainTomorrow <= 0.5\ngini = 0.5\nsamples = 644\nvalue = [509, 539]\nclass = a", fillcolor="#f4fafe"] ;
56 -> 68 ;
69 [label="gini = 0.0\nsamples = 312\nvalue = [509, 0]\nclass = R", fillcolor="#e58139"] ;
68 -> 69 ;
70 [label="gini = 0.0\nsamples = 332\nvalue = [0, 539]\nclass = a", fillcolor="#399de5"] ;
68 -> 70 ;
71 [label="Humidity3pm <= 74.5\ngini = 0.27\nsamples = 2082\nvalue = [2706, 528]\nclass = R", fillcolor="#ea9a60"] ;
51 -> 71 ;
72 [label="RainTomorrow <= 0.5\ngini = 0.18\nsamples = 1830\nvalue = [2556, 284]\nclass = R", fillcolor="#e88f4f"] ;
71 -> 72 ;
73 [label="gini = 0.0\nsamples = 1654\nvalue = [2556, 0]\nclass = R", fillcolor="#e58139"] ;
72 -> 73 ;
74 [label="gini = 0.0\nsamples = 176\nvalue = [0, 284]\nclass = a", fillcolor="#399de5"] ;
72 -> 74 ;
75 [label="Humidity3pm <= 84.5\ngini = 0.47\nsamples = 252\nvalue = [150, 244]\nclass = a", fillcolor="#b3d9f5"] ;
71 -> 75 ;
76 [label="Temp3pm <= 12.65\ngini = 0.5\nsamples = 161\nvalue = [132, 119]\nclass = R", fillcolor="#fcf3ec"] ;
75 -> 76 ;
77 [label="gini = 0.0\nsamples = 12\nvalue = [16, 0]\nclass = R", fillcolor="#e58139"] ;
76 -> 77 ;
78 [label="WindDir3pm <= 10.5\ngini = 0.5\nsamples = 149\nvalue = [116, 119]\nclass = a", fillcolor="#fafdfe"] ;
76 -> 78 ;
79 [label="Pressure3pm <= 1021.65\ngini = 0.46\nsamples = 80\nvalue = [44, 81]\nclass = a", fillcolor="#a5d2f3"] ;
78 -> 79 ;
80 [label="Humidity3pm <= 81.5\ngini = 0.45\nsamples = 26\nvalue = [26, 14]\nclass = R", fillcolor="#f3c5a4"] ;
79 -> 80 ;
81 [label="Pressure3pm <= 1020.1\ngini = 0.37\nsamples = 19\nvalue = [22, 7]\nclass = R", fillcolor="#eda978"] ;
80 -> 81 ;
82 [label="Pressure3pm <= 1019.85\ngini = 0.49\nsamples = 6\nvalue = [4, 5]\nclass = a", fillcolor="#d7ebfa"] ;
81 -> 82 ;
83 [label="Temp3pm <= 22.3\ngini = 0.38\nsamples = 3\nvalue = [3, 1]\nclass = R", fillcolor="#eeab7b"] ;
82 -> 83 ;
84 [label="WindSpeed3pm <= 18.5\ngini = 0.5\nsamples = 2\nvalue = [1, 1]\nclass = R", fillcolor="#ffffff"] ;
83 -> 84 ;
85 [label="gini = 0.0\nsamples = 1\nvalue = [1, 0]\nclass = R", fillcolor="#e58139"] ;
84 -> 85 ;
86 [label="gini = 0.0\nsamples = 1\nvalue = [0, 1]\nclass = a", fillcolor="#399de5"] ;
84 -> 86 ;
87 [label="gini = 0.0\nsamples = 1\nvalue = [2, 0]\nclass = R", fillcolor="#e58139"] ;
83 -> 87 ;
88 [label="WindDir3pm <= 6.0\ngini = 0.32\nsamples = 3\nvalue = [1, 4]\nclass = a", fillcolor="#6ab6ec"] ;
82 -> 88 ;
89 [label="gini = 0.0\nsamples = 1\nvalue = [1, 0]\nclass = R", fillcolor="#e58139"] ;
88 -> 89 ;
90 [label="gini = 0.0\nsamples = 2\nvalue = [0, 4]\nclass = a", fillcolor="#399de5"] ;
88 -> 90 ;
91 [label="WindSpeed3pm <= 6.5\ngini = 0.18\nsamples = 13\nvalue = [18, 2]\nclass = R", fillcolor="#e88f4f"] ;
81 -> 91 ;
92 [label="gini = 0.0\nsamples = 1\nvalue = [0, 2]\nclass = a", fillcolor="#399de5"] ;
91 -> 92 ;
93 [label="gini = 0.0\nsamples = 12\nvalue = [18, 0]\nclass = R", fillcolor="#e58139"] ;
91 -> 93 ;
94 [label="WindDir3pm <= 6.0\ngini = 0.46\nsamples = 7\nvalue = [4, 7]\nclass = a", fillcolor="#aad5f4"] ;
80 -> 94 ;
95 [label="gini = 0.0\nsamples = 3\nvalue = [0, 5]\nclass = a", fillcolor="#399de5"] ;
94 -> 95 ;
96 [label="Pressure3pm <= 1020.45\ngini = 0.44\nsamples = 4\nvalue = [4, 2]\nclass = R", fillcolor="#f2c09c"] ;
94 -> 96 ;
97 [label="gini = 0.0\nsamples = 1\nvalue = [0, 1]\nclass = a", fillcolor="#399de5"] ;
96 -> 97 ;
98 [label="WindSpeed3pm <= 15.0\ngini = 0.32\nsamples = 3\nvalue = [4, 1]\nclass = R", fillcolor="#eca06a"] ;
96 -> 98 ;
99 [label="gini = 0.0\nsamples = 1\nvalue = [0, 1]\nclass = a", fillcolor="#399de5"] ;
98 -> 99 ;
100 [label="gini = 0.0\nsamples = 2\nvalue = [4, 0]\nclass = R", fillcolor="#e58139"] ;
98 -> 100 ;
101 [label="Humidity3pm <= 78.5\ngini = 0.33\nsamples = 54\nvalue = [18, 67]\nclass = a", fillcolor="#6eb7ec"] ;
79 -> 101 ;
102 [label="Pressure3pm <= 1027.95\ngini = 0.43\nsamples = 25\nvalue = [12, 26]\nclass = a", fillcolor="#94caf1"] ;
101 -> 102 ;
103 [label="WindDir3pm <= 3.5\ngini = 0.47\nsamples = 21\nvalue = [12, 19]\nclass = a", fillcolor="#b6dbf5"] ;
102 -> 103 ;
104 [label="RainTomorrow <= 0.5\ngini = 0.24\nsamples = 5\nvalue = [6, 1]\nclass = R", fillcolor="#e9965a"] ;
103 -> 104 ;
105 [label="gini = 0.0\nsamples = 4\nvalue = [6, 0]\nclass = R", fillcolor="#e58139"] ;
104 -> 105 ;
106 [label="gini = 0.0\nsamples = 1\nvalue = [0, 1]\nclass = a", fillcolor="#399de5"] ;
104 -> 106 ;
107 [label="RainTomorrow <= 0.5\ngini = 0.38\nsamples = 16\nvalue = [6, 18]\nclass = a", fillcolor="#7bbeee"] ;
103 -> 107 ;
108 [label="gini = 0.0\nsamples = 3\nvalue = [6, 0]\nclass = R", fillcolor="#e58139"] ;
107 -> 108 ;
109 [label="gini = 0.0\nsamples = 13\nvalue = [0, 18]\nclass = a", fillcolor="#399de5"] ;
107 -> 109 ;
110 [label="gini = 0.0\nsamples = 4\nvalue = [0, 7]\nclass = a", fillcolor="#399de5"] ;
102 -> 110 ;
111 [label="WindDir3pm <= 3.0\ngini = 0.22\nsamples = 29\nvalue = [6, 41]\nclass = a", fillcolor="#56abe9"] ;
101 -> 111 ;
112 [label="Humidity3pm <= 82.5\ngini = 0.44\nsamples = 2\nvalue = [2, 1]\nclass = R", fillcolor="#f2c09c"] ;
111 -> 112 ;
113 [label="gini = 0.0\nsamples = 1\nvalue = [0, 1]\nclass = a", fillcolor="#399de5"] ;
112 -> 113 ;
114 [label="gini = 0.0\nsamples = 1\nvalue = [2, 0]\nclass = R", fillcolor="#e58139"] ;
112 -> 114 ;
115 [label="Temp3pm <= 17.95\ngini = 0.17\nsamples = 27\nvalue = [4, 40]\nclass = a", fillcolor="#4da7e8"] ;
111 -> 115 ;
116 [label="WindDir3pm <= 9.5\ngini = 0.1\nsamples = 23\nvalue = [2, 36]\nclass = a", fillcolor="#44a2e6"] ;
115 -> 116 ;
117 [label="gini = 0.0\nsamples = 18\nvalue = [0, 29]\nclass = a", fillcolor="#399de5"] ;
116 -> 117 ;
118 [label="Temp3pm <= 15.4\ngini = 0.35\nsamples = 5\nvalue = [2, 7]\nclass = a", fillcolor="#72b9ec"] ;
116 -> 118 ;
119 [label="RainTomorrow <= 0.5\ngini = 0.5\nsamples = 2\nvalue = [2, 2]\nclass = R", fillcolor="#ffffff"] ;
118 -> 119 ;
120 [label="gini = 0.0\nsamples = 1\nvalue = [2, 0]\nclass = R", fillcolor="#e58139"] ;
119 -> 120 ;
121 [label="gini = 0.0\nsamples = 1\nvalue = [0, 2]\nclass = a", fillcolor="#399de5"] ;
119 -> 121 ;
122 [label="gini = 0.0\nsamples = 3\nvalue = [0, 5]\nclass = a", fillcolor="#399de5"] ;
118 -> 122 ;
123 [label="RainTomorrow <= 0.5\ngini = 0.44\nsamples = 4\nvalue = [2, 4]\nclass = a", fillcolor="#9ccef2"] ;
115 -> 123 ;
124 [label="gini = 0.0\nsamples = 2\nvalue = [2, 0]\nclass = R", fillcolor="#e58139"] ;
123 -> 124 ;
125 [label="gini = 0.0\nsamples = 2\nvalue = [0, 4]\nclass = a", fillcolor="#399de5"] ;
123 -> 125 ;
126 [label="Temp3pm <= 14.95\ngini = 0.45\nsamples = 69\nvalue = [72, 38]\nclass = R", fillcolor="#f3c4a2"] ;
78 -> 126 ;
127 [label="Humidity3pm <= 80.5\ngini = 0.38\nsamples = 7\nvalue = [3, 9]\nclass = a", fillcolor="#7bbeee"] ;
126 -> 127 ;
128 [label="gini = 0.0\nsamples = 4\nvalue = [0, 8]\nclass = a", fillcolor="#399de5"] ;
127 -> 128 ;
129 [label="WindSpeed3pm <= 25.0\ngini = 0.38\nsamples = 3\nvalue = [3, 1]\nclass = R", fillcolor="#eeab7b"] ;
127 -> 129 ;
130 [label="gini = 0.0\nsamples = 2\nvalue = [3, 0]\nclass = R", fillcolor="#e58139"] ;
129 -> 130 ;
131 [label="gini = 0.0\nsamples = 1\nvalue = [0, 1]\nclass = a", fillcolor="#399de5"] ;
129 -> 131 ;
132 [label="RainTomorrow <= 0.5\ngini = 0.42\nsamples = 62\nvalue = [69, 29]\nclass = R", fillcolor="#f0b68c"] ;
126 -> 132 ;
133 [label="gini = 0.0\nsamples = 42\nvalue = [69, 0]\nclass = R", fillcolor="#e58139"] ;
132 -> 133 ;
134 [label="gini = 0.0\nsamples = 20\nvalue = [0, 29]\nclass = a", fillcolor="#399de5"] ;
132 -> 134 ;
135 [label="WindSpeed3pm <= 6.5\ngini = 0.22\nsamples = 91\nvalue = [18, 125]\nclass = a", fillcolor="#56abe9"] ;
75 -> 135 ;
136 [label="RainTomorrow <= 0.5\ngini = 0.46\nsamples = 10\nvalue = [5, 9]\nclass = a", fillcolor="#a7d3f3"] ;
135 -> 136 ;
137 [label="gini = 0.0\nsamples = 3\nvalue = [5, 0]\nclass = R", fillcolor="#e58139"] ;
136 -> 137 ;
138 [label="gini = 0.0\nsamples = 7\nvalue = [0, 9]\nclass = a", fillcolor="#399de5"] ;
136 -> 138 ;
139 [label="Humidity3pm <= 89.5\ngini = 0.18\nsamples = 81\nvalue = [13, 116]\nclass = a", fillcolor="#4fa8e8"] ;
135 -> 139 ;
140 [label="WindDir3pm <= 3.0\ngini = 0.35\nsamples = 33\nvalue = [12, 41]\nclass = a", fillcolor="#73baed"] ;
139 -> 140 ;
141 [label="gini = 0.0\nsamples = 8\nvalue = [0, 15]\nclass = a", fillcolor="#399de5"] ;
140 -> 141 ;
142 [label="Temp3pm <= 15.4\ngini = 0.43\nsamples = 25\nvalue = [12, 26]\nclass = a", fillcolor="#94caf1"] ;
140 -> 142 ;
143 [label="RainTomorrow <= 0.5\ngini = 0.4\nsamples = 7\nvalue = [8, 3]\nclass = R", fillcolor="#efb083"] ;
142 -> 143 ;
144 [label="gini = 0.0\nsamples = 4\nvalue = [8, 0]\nclass = R", fillcolor="#e58139"] ;
143 -> 144 ;
145 [label="gini = 0.0\nsamples = 3\nvalue = [0, 3]\nclass = a", fillcolor="#399de5"] ;
143 -> 145 ;
146 [label="Pressure3pm <= 1024.9\ngini = 0.25\nsamples = 18\nvalue = [4, 23]\nclass = a", fillcolor="#5baeea"] ;
142 -> 146 ;
147 [label="gini = 0.0\nsamples = 13\nvalue = [0, 18]\nclass = a", fillcolor="#399de5"] ;
146 -> 147 ;
148 [label="Pressure3pm <= 1027.65\ngini = 0.49\nsamples = 5\nvalue = [4, 5]\nclass = a", fillcolor="#d7ebfa"] ;
146 -> 148 ;
149 [label="gini = 0.0\nsamples = 2\nvalue = [3, 0]\nclass = R", fillcolor="#e58139"] ;
148 -> 149 ;
150 [label="RainTomorrow <= 0.5\ngini = 0.28\nsamples = 3\nvalue = [1, 5]\nclass = a", fillcolor="#61b1ea"] ;
148 -> 150 ;
151 [label="gini = 0.0\nsamples = 1\nvalue = [1, 0]\nclass = R", fillcolor="#e58139"] ;
150 -> 151 ;
152 [label="gini = 0.0\nsamples = 2\nvalue = [0, 5]\nclass = a", fillcolor="#399de5"] ;
150 -> 152 ;
153 [label="Pressure3pm <= 1025.55\ngini = 0.03\nsamples = 48\nvalue = [1, 75]\nclass = a", fillcolor="#3c9ee5"] ;
139 -> 153 ;
154 [label="gini = 0.0\nsamples = 40\nvalue = [0, 62]\nclass = a", fillcolor="#399de5"] ;
153 -> 154 ;
155 [label="Pressure3pm <= 1025.95\ngini = 0.13\nsamples = 8\nvalue = [1, 13]\nclass = a", fillcolor="#48a5e7"] ;
153 -> 155 ;
156 [label="gini = 0.0\nsamples = 1\nvalue = [1, 0]\nclass = R", fillcolor="#e58139"] ;
155 -> 156 ;
157 [label="gini = 0.0\nsamples = 7\nvalue = [0, 13]\nclass = a", fillcolor="#399de5"] ;
155 -> 157 ;
158 [label="WindSpeed3pm <= 16.0\ngini = 0.2\nsamples = 2460\nvalue = [3478, 431]\nclass = R", fillcolor="#e89152"] ;
0 -> 158 [labeldistance=2.5, labelangle=-45, headlabel="False"] ;
159 [label="Humidity3pm <= 40.5\ngini = 0.15\nsamples = 1287\nvalue = [1880, 168]\nclass = R", fillcolor="#e78c4b"] ;
158 -> 159 ;
160 [label="Pressure3pm <= 1010.35\ngini = 0.09\nsamples = 984\nvalue = [1492, 74]\nclass = R", fillcolor="#e68743"] ;
159 -> 160 ;
161 [label="RainTomorrow <= 0.5\ngini = 0.17\nsamples = 242\nvalue = [360, 37]\nclass = R", fillcolor="#e88e4d"] ;
160 -> 161 ;
162 [label="gini = 0.0\nsamples = 221\nvalue = [360, 0]\nclass = R", fillcolor="#e58139"] ;
161 -> 162 ;
163 [label="gini = 0.0\nsamples = 21\nvalue = [0, 37]\nclass = a", fillcolor="#399de5"] ;
161 -> 163 ;
164 [label="RainTomorrow <= 0.5\ngini = 0.06\nsamples = 742\nvalue = [1132, 37]\nclass = R", fillcolor="#e6853f"] ;
160 -> 164 ;
165 [label="gini = 0.0\nsamples = 719\nvalue = [1132, 0]\nclass = R", fillcolor="#e58139"] ;
164 -> 165 ;
166 [label="gini = 0.0\nsamples = 23\nvalue = [0, 37]\nclass = a", fillcolor="#399de5"] ;
164 -> 166 ;
167 [label="RainTomorrow <= 0.5\ngini = 0.31\nsamples = 303\nvalue = [388, 94]\nclass = R", fillcolor="#eba069"] ;
159 -> 167 ;
168 [label="gini = 0.0\nsamples = 243\nvalue = [388, 0]\nclass = R", fillcolor="#e58139"] ;
167 -> 168 ;
169 [label="gini = 0.0\nsamples = 60\nvalue = [0, 94]\nclass = a", fillcolor="#399de5"] ;
167 -> 169 ;
170 [label="RainTomorrow <= 0.5\ngini = 0.24\nsamples = 1173\nvalue = [1598, 263]\nclass = R", fillcolor="#e9965a"] ;
158 -> 170 ;
171 [label="gini = 0.0\nsamples = 999\nvalue = [1598, 0]\nclass = R", fillcolor="#e58139"] ;
170 -> 171 ;
172 [label="gini = 0.0\nsamples = 174\nvalue = [0, 263]\nclass = a", fillcolor="#399de5"] ;
170 -> 172 ;
}